Language model created by QuickLM on Sat Oct 31 01:37:38 EDT 2020
Copyright (c) 1996-2010 Carnegie Mellon University and Alexander I. Rudnicky

The model is in standard ARPA format, designed by Doug Paul while he was at MITRE.

The code that was used to produce this language model is available in Open Source.
Please visit http://www.speech.cs.cmu.edu/tools/ for more information

The (fixed) discount mass is 0.5. The backoffs are computed using the ratio method.
This model based on a corpus of 9 sentences and 11 words

\data\
ngram 1=11
ngram 2=18
ngram 3=9

\1-grams:
-0.7782 </s> -0.3010
-0.7782 <s> -0.2218
-1.7324 AC -0.2218
-1.7324 COMPUTER -0.2218
-1.7324 HELLO -0.2218
-1.7324 LIGHT -0.2218
-1.7324 OFF -0.2218
-1.7324 ON -0.2218
-1.7324 POWER -0.2218
-1.7324 TV -0.2218
-1.7324 WORLD -0.2218

\2-grams:
-1.2553 <s> AC 0.0000
-1.2553 <s> COMPUTER 0.0000
-1.2553 <s> HELLO 0.0000
-1.2553 <s> LIGHT 0.0000
-1.2553 <s> OFF 0.0000
-1.2553 <s> ON 0.0000
-1.2553 <s> POWER 0.0000
-1.2553 <s> TV 0.0000
-1.2553 <s> WORLD 0.0000
-0.3010 AC </s> -0.3010
-0.3010 COMPUTER </s> -0.3010
-0.3010 HELLO </s> -0.3010
-0.3010 LIGHT </s> -0.3010
-0.3010 OFF </s> -0.3010
-0.3010 ON </s> -0.3010
-0.3010 POWER </s> -0.3010
-0.3010 TV </s> -0.3010
-0.3010 WORLD </s> -0.3010

\3-grams:
-0.3010 <s> AC </s>
-0.3010 <s> COMPUTER </s>
-0.3010 <s> HELLO </s>
-0.3010 <s> LIGHT </s>
-0.3010 <s> OFF </s>
-0.3010 <s> ON </s>
-0.3010 <s> POWER </s>
-0.3010 <s> TV </s>
-0.3010 <s> WORLD </s>

\end\
